svm_type c_svc
kernel_type rbf
gamma 0.05
nr_class 5
total_sv 96
rho 0.59733 0.776805 0.725542 0.771467 -0.0407674 0.216022 0.0526944 0.415638 0.348685 -0.028792
label 4 5 3 2 1
nr_sv 8 14 19 29 26
SV
1 1 1 1 1:1 2:1 3:0 4:0 5:0 6:0 7:0 8:0 9:0 10:0 11:0 12:0 13:0 14:0 15:1 16:0 17:0 18:0 19:0 20:0 
1 1 1 1 1:1 2:0 3:0 4:0 5:0 6:0 7:0 8:0 9:0 10:0 11:0 12:0 13:0 14:0 15:1 16:0 17:0 18:0 19:0 20:0 
1 1 1 1 1:0 2:1 3:0 4:0 5:0 6:0 7:0 8:0 9:0 10:0 11:0 12:0 13:1 14:0 15:1 16:0 17:0 18:0 19:0 20:0 
1 1 1 1 1:0 2:0 3:0 4:0 5:0 6:0 7:0 8:0 9:0 10:0 11:0 12:0 13:1 14:0 15:0 16:0 17:0 18:0 19:0 20:0 
1 1 1 1 1:0 2:0 3:0 4:0 5:0 6:0 7:0 8:0 9:0 10:0 11:0 12:0 13:0 14:0 15:0 16:0 17:0 18:0 19:0 20:0 
1 1 1 1 1:0 2:0 3:0 4:0 5:0 6:0 7:0 8:0 9:0 10:0 11:0 12:0 13:0 14:0 15:0 16:0 17:1 18:0 19:0 20:0 
1 1 1 1 1:0 2:0 3:0 4:0 5:0 6:0 7:0 8:0 9:1 10:0 11:0 12:0 13:1 14:0 15:0 16:0 17:0 18:0 19:0 20:0 
1 1 1 1 1:1 2:0 3:0 4:0 5:0 6:0 7:0 8:0 9:0 10:0 11:1 12:0 13:0 14:0 15:0 16:0 17:0 18:0 19:0 20:0 
-0 1 1 1 1:0 2:0 3:0 4:0 5:0 6:1 7:0 8:0 9:0 10:1 11:0 12:0 13:1 14:0 15:0 16:0 17:1 18:0 19:0 20:0 
-1 1 1 1 1:0 2:0 3:0 4:0 5:0 6:0 7:0 8:0 9:0 10:0 11:0 12:0 13:0 14:0 15:0 16:0 17:1 18:0 19:0 20:0 
-1 1 1 1 1:0 2:0 3:0 4:0 5:0 6:0 7:0 8:0 9:0 10:0 11:0 12:0 13:0 14:0 15:0 16:1 17:0 18:0 19:0 20:0 
-1 1 1 1 1:0 2:0 3:0 4:0 5:0 6:0 7:0 8:0 9:0 10:1 11:0 12:0 13:0 14:0 15:0 16:0 17:0 18:0 19:0 20:0 
-0.9506776405988706 1 1 1 1:0 2:0 3:0 4:0 5:0 6:0 7:0 8:0 9:0 10:1 11:1 12:1 13:1 14:0 15:0 16:1 17:0 18:0 19:0 20:0 
-1 1 1 1 1:0 2:0 3:0 4:0 5:0 6:0 7:0 8:0 9:0 10:0 11:0 12:0 13:0 14:0 15:0 16:0 17:0 18:0 19:0 20:0 
-0 1 1 1 1:0 2:0 3:0 4:0 5:0 6:0 7:0 8:0 9:0 10:1 11:0 12:0 13:0 14:0 15:0 16:1 17:0 18:0 19:0 20:0 
-1 1 1 1 1:0 2:0 3:0 4:0 5:0 6:0 7:0 8:0 9:0 10:1 11:0 12:0 13:0 14:0 15:0 16:0 17:0 18:0 19:0 20:0 
-0 0.2876759662115437 1 1 1:0 2:0 3:0 4:0 5:0 6:1 7:0 8:0 9:0 10:1 11:0 12:0 13:1 14:0 15:0 16:1 17:0 18:0 19:0 20:0 
-0.04932235940112934 0.9724554885951336 1 1 1:0 2:0 3:0 4:0 5:0 6:1 7:0 8:0 9:0 10:1 11:0 12:0 13:1 14:0 15:0 16:1 17:0 18:0 19:0 20:0 
-1 1 1 1 1:0 2:0 3:0 4:0 5:0 6:0 7:0 8:0 9:0 10:0 11:0 12:0 13:0 14:0 15:0 16:0 17:1 18:0 19:0 20:0 
-0 1 0.8276853781938711 0.7411619918406285 1:0 2:0 3:0 4:0 5:0 6:1 7:0 8:0 9:0 10:1 11:0 12:0 13:0 14:0 15:0 16:1 17:0 18:0 19:0 20:0 
-1 1 1 1 1:0 2:0 3:0 4:0 5:0 6:1 7:0 8:0 9:0 10:0 11:0 12:0 13:0 14:0 15:0 16:0 17:1 18:0 19:0 20:0 
-0 1 1 1 1:0 2:0 3:0 4:0 5:0 6:0 7:0 8:0 9:0 10:1 11:1 12:1 13:0 14:0 15:0 16:0 17:1 18:0 19:0 20:0 
-1 -1 1 1 1:0 2:0 3:0 4:0 5:0 6:0 7:0 8:0 9:0 10:0 11:0 12:0 13:0 14:0 15:0 16:0 17:1 18:0 19:0 20:0 
-0 -0 1 1 1:0 2:0 3:1 4:0 5:0 6:0 7:0 8:0 9:1 10:0 11:0 12:0 13:0 14:0 15:0 16:0 17:0 18:0 19:0 20:0 
-0.5310460311856686 -1 1 1 1:0 2:0 3:0 4:0 5:0 6:0 7:1 8:0 9:1 10:0 11:0 12:0 13:1 14:0 15:0 16:0 17:0 18:0 19:0 20:0 
-1 -1 1 1 1:0 2:0 3:0 4:0 5:0 6:0 7:0 8:1 9:0 10:0 11:0 12:0 13:1 14:0 15:1 16:0 17:0 18:0 19:0 20:0 
-0 -0 0.3662964625593532 0.9847179022324066 1:0 2:0 3:1 4:0 5:0 6:0 7:0 8:0 9:1 10:0 11:0 12:0 13:0 14:0 15:0 16:0 17:0 18:1 19:0 20:0 
-0.641962588652911 -1 1 1 1:0 2:0 3:0 4:0 5:0 6:0 7:0 8:0 9:0 10:0 11:0 12:0 13:0 14:0 15:0 16:0 17:0 18:0 19:0 20:0 
-0.8553092314543339 -1 1 1 1:0 2:0 3:0 4:0 5:0 6:0 7:0 8:0 9:0 10:0 11:0 12:0 13:1 14:0 15:0 16:0 17:0 18:1 19:0 20:0 
-0 -0 1 1 1:0 2:0 3:1 4:0 5:0 6:0 7:0 8:0 9:1 10:0 11:0 12:0 13:0 14:0 15:0 16:0 17:0 18:1 19:0 20:0 
-0 -0.430354141991265 1 1 1:0 2:0 3:1 4:0 5:0 6:0 7:0 8:0 9:1 10:0 11:0 12:0 13:0 14:0 15:0 16:0 17:0 18:0 19:0 20:0 
-0 -1 1 1 1:0 2:0 3:0 4:0 5:0 6:0 7:0 8:0 9:0 10:0 11:0 12:0 13:0 14:0 15:0 16:0 17:0 18:1 19:0 20:0 
-1 -0.5006915186724176 1 1 1:0 2:0 3:0 4:0 5:0 6:0 7:0 8:0 9:1 10:0 11:0 12:0 13:0 14:0 15:1 16:0 17:0 18:0 19:0 20:0 
-0 -1 1 1 1:0 2:0 3:0 4:0 5:0 6:0 7:0 8:0 9:0 10:0 11:0 12:0 13:0 14:0 15:0 16:0 17:0 18:1 19:0 20:0 
-0 -1 1 1 1:0 2:0 3:0 4:0 5:0 6:0 7:0 8:0 9:1 10:0 11:0 12:0 13:0 14:0 15:0 16:0 17:0 18:0 19:0 20:0 
-0 -0 1 1 1:0 2:0 3:0 4:0 5:0 6:0 7:0 8:0 9:1 10:0 11:0 12:0 13:0 14:0 15:0 16:0 17:0 18:1 19:0 20:0 
-0 -0.4041051630140253 1 1 1:0 2:0 3:0 4:0 5:0 6:0 7:1 8:0 9:1 10:0 11:0 12:0 13:0 14:0 15:0 16:0 17:0 18:0 19:0 20:0 
-0 -0.9249806311289697 1 1 1:0 2:0 3:1 4:0 5:0 6:0 7:0 8:0 9:1 10:0 11:0 12:0 13:0 14:0 15:0 16:0 17:0 18:0 19:0 20:0 
-1 -1 1 1 1:0 2:0 3:0 4:0 5:0 6:0 7:0 8:0 9:0 10:0 11:0 12:0 13:0 14:0 15:0 16:0 17:0 18:0 19:0 20:0 
-1 -1 1 1 1:0 2:0 3:0 4:0 5:0 6:0 7:0 8:0 9:0 10:0 11:0 12:0 13:0 14:0 15:0 16:0 17:0 18:0 19:0 20:0 
-0.9716821487070865 -1 1 1 1:0 2:0 3:0 4:0 5:0 6:0 7:0 8:0 9:0 10:0 11:0 12:0 13:0 14:0 15:0 16:0 17:0 18:0 19:0 20:0 
-0 -0 -1 1 1:0 2:0 3:0 4:0 5:0 6:0 7:1 8:0 9:1 10:0 11:1 12:1 13:1 14:0 15:0 16:0 17:0 18:0 19:0 20:0 
-0 -1 -0 0 1:0 2:0 3:0 4:0 5:0 6:0 7:0 8:0 9:0 10:0 11:1 12:1 13:0 14:0 15:0 16:0 17:1 18:0 19:0 20:0 
-0.2661070557180319 -1 -1 1 1:0 2:0 3:0 4:0 5:0 6:0 7:0 8:0 9:0 10:0 11:1 12:0 13:0 14:0 15:0 16:0 17:0 18:0 19:0 20:0 
-1 -1 -1 1 1:0 2:0 3:0 4:0 5:0 6:0 7:0 8:0 9:0 10:0 11:0 12:0 13:0 14:0 15:0 16:0 17:0 18:0 19:0 20:0 
-0 -1 -0 0 1:0 2:0 3:0 4:0 5:0 6:0 7:0 8:0 9:0 10:0 11:1 12:1 13:0 14:0 15:0 16:0 17:1 18:0 19:0 20:0 
-0 -0.119989544956486 -1 0.622814921141566 1:0 2:0 3:0 4:0 5:0 6:0 7:0 8:0 9:1 10:0 11:1 12:1 13:0 14:0 15:0 16:0 17:1 18:0 19:0 20:0 
-1 -0.1923230845227499 -1 1 1:0 2:0 3:0 4:0 5:0 6:0 7:0 8:0 9:0 10:0 11:1 12:1 13:0 14:0 15:1 16:0 17:0 18:0 19:0 20:0 
-0 -0 -1 0.9310449998070803 1:0 2:0 3:0 4:0 5:0 6:0 7:0 8:0 9:0 10:0 11:0 12:0 13:0 14:1 15:0 16:0 17:0 18:0 19:1 20:0 
-1 -1 -1 1 1:0 2:0 3:0 4:0 5:0 6:0 7:0 8:0 9:0 10:0 11:0 12:0 13:1 14:0 15:0 16:0 17:0 18:0 19:0 20:0 
-0.1417772311923855 -1 -0.2529762809213667 0 1:0 2:0 3:0 4:0 5:0 6:0 7:0 8:0 9:0 10:0 11:1 12:1 13:0 14:0 15:0 16:0 17:1 18:0 19:0 20:0 
-1 -1 -1 1 1:0 2:0 3:0 4:0 5:0 6:0 7:0 8:0 9:0 10:0 11:0 12:0 13:0 14:0 15:0 16:0 17:0 18:0 19:0 20:0 
-0 -0 -1 1 1:0 2:0 3:0 4:0 5:0 6:0 7:0 8:0 9:0 10:0 11:0 12:0 13:0 14:1 15:0 16:0 17:0 18:0 19:1 20:0 
-0 -0 -0 1 1:0 2:0 3:0 4:0 5:0 6:0 7:0 8:0 9:0 10:0 11:0 12:0 13:1 14:1 15:0 16:0 17:0 18:0 19:1 20:0 
-0 -0 -0 0.5855813592496184 1:0 2:0 3:0 4:0 5:0 6:0 7:0 8:0 9:0 10:0 11:1 12:1 13:1 14:0 15:0 16:0 17:0 18:0 19:0 20:0 
-1 -1 -1 1 1:0 2:0 3:0 4:0 5:0 6:0 7:0 8:0 9:0 10:0 11:0 12:0 13:1 14:0 15:0 16:0 17:0 18:0 19:0 20:0 
-1 -1 -1 1 1:0 2:0 3:0 4:0 5:0 6:0 7:0 8:0 9:1 10:0 11:0 12:0 13:1 14:0 15:0 16:0 17:0 18:0 19:0 20:0 
-0 -0.9383518179346486 -1 1 1:0 2:0 3:0 4:0 5:0 6:0 7:0 8:0 9:0 10:0 11:0 12:0 13:0 14:1 15:0 16:0 17:0 18:0 19:1 20:0 
-0.3447305556103958 -1 -1 1 1:0 2:0 3:0 4:0 5:0 6:0 7:0 8:0 9:1 10:0 11:0 12:0 13:0 14:0 15:0 16:0 17:0 18:0 19:0 20:0 
-0 -0 -0.6178789040610486 1 1:0 2:0 3:0 4:0 5:0 6:0 7:0 8:0 9:1 10:0 11:1 12:1 13:1 14:0 15:0 16:0 17:0 18:0 19:0 20:0 
-1 -1 -1 1 1:0 2:0 3:0 4:0 5:0 6:0 7:0 8:0 9:0 10:0 11:0 12:0 13:0 14:0 15:0 16:0 17:0 18:0 19:0 20:0 
-0 -0 -0 1 1:0 2:0 3:0 4:0 5:0 6:0 7:0 8:0 9:0 10:0 11:1 12:1 13:1 14:0 15:0 16:0 17:0 18:0 19:0 20:0 
-0.191886973580699 -0.6852517358489811 -1 0.9790985712458971 1:0 2:0 3:0 4:0 5:0 6:0 7:0 8:0 9:0 10:0 11:0 12:0 13:0 14:1 15:0 16:0 17:0 18:0 19:1 20:0 
-0 -0 -0 1 1:0 2:0 3:0 4:0 5:0 6:0 7:0 8:0 9:0 10:0 11:1 12:1 13:1 14:0 15:0 16:0 17:0 18:0 19:0 20:0 
-0 -0 -1 1 1:0 2:0 3:0 4:0 5:0 6:0 7:0 8:0 9:1 10:0 11:0 12:0 13:1 14:1 15:0 16:0 17:0 18:0 19:1 20:0 
-0 -0 -0 0.9102767719603652 1:0 2:0 3:0 4:0 5:0 6:0 7:0 8:0 9:0 10:0 11:1 12:1 13:1 14:0 15:0 16:0 17:0 18:0 19:0 20:0 
-0 -0 -1 1 1:0 2:0 3:0 4:0 5:0 6:0 7:0 8:0 9:1 10:0 11:1 12:0 13:0 14:0 15:0 16:0 17:0 18:0 19:0 20:0 
-0.05549818389848799 -0.5087344418436122 -0 1 1:0 2:0 3:0 4:0 5:0 6:0 7:0 8:0 9:0 10:0 11:0 12:0 13:1 14:1 15:0 16:0 17:0 18:0 19:1 20:0 
-0 -0 -0.4954412775769378 0 1:0 2:0 3:0 4:0 5:0 6:0 7:0 8:0 9:0 10:0 11:1 12:1 13:0 14:0 15:0 16:0 17:0 18:0 19:0 20:0 
-0 -0.3830347530873933 -0 1 1:0 2:0 3:0 4:0 5:0 6:0 7:1 8:0 9:0 10:0 11:1 12:1 13:1 14:0 15:0 16:0 17:0 18:0 19:0 20:0 
-0 -1 -0 -1 1:0 2:0 3:0 4:1 5:0 6:0 7:0 8:0 9:0 10:0 11:0 12:0 13:1 14:0 15:0 16:0 17:0 18:0 19:0 20:0 
-0 -0.8813217370442023 -0.9923589511162035 -1 1:0 2:0 3:0 4:1 5:0 6:0 7:0 8:0 9:0 10:0 11:0 12:0 13:1 14:0 15:0 16:0 17:0 18:0 19:0 20:0 
-0.5099490393174662 -1 -1 -1 1:0 2:0 3:0 4:1 5:0 6:0 7:0 8:0 9:0 10:0 11:0 12:0 13:1 14:0 15:0 16:0 17:1 18:0 19:0 20:0 
-1 -1 -1 -1 1:0 2:0 3:0 4:0 5:0 6:0 7:0 8:0 9:0 10:0 11:0 12:0 13:0 14:0 15:0 16:0 17:0 18:0 19:0 20:0 
-1 -0 -1 -0.8895363078924644 1:0 2:0 3:0 4:1 5:0 6:0 7:0 8:0 9:1 10:0 11:0 12:0 13:1 14:0 15:1 16:0 17:0 18:0 19:0 20:0 
-0.3756576974038571 -0 -0 -1 1:0 2:0 3:0 4:1 5:0 6:0 7:1 8:0 9:0 10:0 11:1 12:0 13:1 14:0 15:1 16:0 17:0 18:0 19:0 20:0 
-0 -0 -1 -1 1:0 2:0 3:0 4:1 5:0 6:0 7:0 8:0 9:1 10:0 11:0 12:0 13:1 14:0 15:0 16:0 17:0 18:0 19:0 20:0 
-0.5135828287397918 -0 -0 -1 1:0 2:0 3:0 4:0 5:0 6:0 7:0 8:0 9:0 10:0 11:0 12:0 13:1 14:0 15:0 16:0 17:0 18:0 19:0 20:1 
-0 -0.8869289796095907 -1 -1 1:0 2:0 3:0 4:0 5:0 6:0 7:0 8:0 9:0 10:0 11:0 12:0 13:0 14:0 15:0 16:0 17:0 18:0 19:0 20:1 
-0 -0 -0 -1 1:0 2:0 3:0 4:1 5:0 6:0 7:1 8:0 9:0 10:0 11:1 12:0 13:1 14:0 15:0 16:0 17:0 18:0 19:0 20:0 
-1 -1 -1 -1 1:0 2:0 3:0 4:0 5:0 6:0 7:0 8:0 9:0 10:0 11:0 12:0 13:0 14:0 15:0 16:0 17:0 18:0 19:0 20:0 
-0 -1 -1 -1 1:0 2:0 3:0 4:0 5:0 6:0 7:0 8:0 9:0 10:0 11:0 12:0 13:0 14:0 15:0 16:0 17:0 18:0 19:0 20:1 
-0 -1 -1 -1 1:0 2:0 3:0 4:0 5:0 6:0 7:0 8:0 9:0 10:0 11:0 12:0 13:0 14:0 15:0 16:0 17:0 18:0 19:0 20:1 
-1 -1 -1 -1 1:0 2:0 3:0 4:0 5:0 6:0 7:0 8:0 9:0 10:0 11:0 12:0 13:0 14:0 15:0 16:0 17:0 18:0 19:0 20:0 
-0.7043123988100158 -0.9863171873180522 -1 -1 1:0 2:0 3:0 4:0 5:0 6:0 7:0 8:0 9:0 10:0 11:0 12:0 13:0 14:0 15:0 16:0 17:0 18:0 19:0 20:1 
-0 -0 -1 -1 1:0 2:0 3:0 4:0 5:0 6:0 7:0 8:0 9:1 10:0 11:0 12:0 13:0 14:0 15:0 16:0 17:0 18:0 19:0 20:1 
-1 -1 -1 -1 1:0 2:0 3:0 4:0 5:0 6:0 7:0 8:0 9:0 10:0 11:0 12:0 13:0 14:0 15:0 16:0 17:0 18:0 19:0 20:0 
-0 -0 -1 -0 1:0 2:0 3:0 4:0 5:0 6:0 7:1 8:0 9:1 10:0 11:0 12:0 13:1 14:0 15:0 16:0 17:0 18:0 19:0 20:0 
-0.4267444936937468 -0.9733182243038206 -1 -1 1:0 2:0 3:0 4:0 5:0 6:0 7:1 8:0 9:1 10:0 11:1 12:0 13:1 14:0 15:0 16:0 17:0 18:0 19:0 20:0 
-0 -0.6706820702032716 -1 -1 1:0 2:0 3:0 4:0 5:0 6:0 7:1 8:0 9:1 10:0 11:0 12:0 13:0 14:0 15:0 16:0 17:0 18:0 19:0 20:0 
-0 -0 -0 -0.434829802504788 1:0 2:0 3:0 4:0 5:0 6:0 7:1 8:0 9:0 10:0 11:0 12:0 13:1 14:0 15:0 16:0 17:0 18:0 19:0 20:0 
-0 -0 -0 -1 1:0 2:0 3:0 4:0 5:0 6:0 7:1 8:0 9:0 10:0 11:0 12:0 13:1 14:0 15:0 16:0 17:0 18:0 19:0 20:0 
-0 -0 -1 -1 1:0 2:0 3:0 4:0 5:0 6:0 7:1 8:0 9:1 10:0 11:0 12:0 13:1 14:0 15:0 16:0 17:0 18:0 19:0 20:0 
-0 -0 -1 -0.9160914033019586 1:0 2:0 3:0 4:0 5:0 6:0 7:1 8:0 9:1 10:0 11:0 12:0 13:1 14:0 15:0 16:0 17:0 18:0 19:0 20:0 
-0 -1 -0 -1 1:0 2:0 3:0 4:0 5:0 6:0 7:1 8:0 9:0 10:0 11:0 12:0 13:1 14:0 15:0 16:0 17:0 18:0 19:0 20:0 
-0.4697535420351224 -0.3425937933616911 -0.9923589511162031 -0.7883591097053161 1:0 2:0 3:0 4:0 5:0 6:0 7:1 8:0 9:0 10:0 11:0 12:0 13:1 14:0 15:0 16:0 17:0 18:0 19:0 20:0 
